<?xml version="1.0"?>
<opencv_storage>
<stage6>
  <maxWeakCount>5</maxWeakCount>
  <stageThreshold>-1.7252489328384399e+00</stageThreshold>
  <weakClassifiers>
    <_>
      <internalNodes>
        0 -1 45527 -9.4816900789737701e-02</internalNodes>
      <leafValues>
        4.1605839133262634e-01 -9.6319019794464111e-01</leafValues></_>
    <_>
      <internalNodes>
        0 -1 77818 3.2695818692445755e-02</internalNodes>
      <leafValues>
        -5.6656366586685181e-01 7.7744400501251221e-01</leafValues></_>
    <_>
      <internalNodes>
        0 -1 7443 2.8461115434765816e-02</internalNodes>
      <leafValues>
        -8.8496428728103638e-01 3.7206414341926575e-01</leafValues></_>
    <_>
      <internalNodes>
        0 -1 8284 -4.3969802558422089e-02</internalNodes>
      <leafValues>
        3.9695522189140320e-01 -8.5475087165832520e-01</leafValues></_>
    <_>
      <internalNodes>
        0 -1 73516 -1.5966455976013094e-04</internalNodes>
      <leafValues>
        -9.1433000564575195e-01 2.8719165921211243e-01</leafValues></_></weakClassifiers></stage6>
</opencv_storage>
