<?xml version="1.0"?>
<opencv_storage>
<cascade>
  <stageType>BOOST</stageType>
  <featureType>HAAR</featureType>
  <height>20</height>
  <width>20</width>
  <stageParams>
    <boostType>GAB</boostType>
    <minHitRate>9.9500000476837158e-01</minHitRate>
    <maxFalseAlarm>5.0000000000000000e-01</maxFalseAlarm>
    <weightTrimRate>9.4999999999999996e-01</weightTrimRate>
    <maxDepth>1</maxDepth>
    <maxWeakCount>100</maxWeakCount></stageParams>
  <featureParams>
    <maxCatCount>0</maxCatCount>
    <featSize>1</featSize>
    <mode>BASIC</mode></featureParams>
  <stageNum>10</stageNum>
  <stages>
    <!-- stage 0 -->
    <_>
      <maxWeakCount>2</maxWeakCount>
      <stageThreshold>-1.8387006223201752e-01</stageThreshold>
      <weakClassifiers>
        <_>
          <internalNodes>
            0 -1 0 -1.1120796203613281e-02</internalNodes>
          <leafValues>
            7.9629629850387573e-01 -9.6875000000000000e-01</leafValues></_>
        <_>
          <internalNodes>
            0 -1 18 -1.1306083202362061e-01</internalNodes>
          <leafValues>
            7.8624588251113892e-01 -9.8016637563705444e-01</leafValues></_></weakClassifiers></_>
    <!-- stage 1 -->
    <_>
      <maxWeakCount>2</maxWeakCount>
      <stageThreshold>-3.7659764289855957e-01</stageThreshold>
      <weakClassifiers>
        <_>
          <internalNodes>
            0 -1 13 -9.6818879246711731e-03</internalNodes>
          <leafValues>
            6.6101694107055664e-01 -9.7802197933197021e-01</leafValues></_>
        <_>
          <internalNodes>
            0 -1 12 1.0104735381901264e-02</internalNodes>
          <leafValues>
            -9.4606530666351318e-01 6.0142433643341064e-01</leafValues></_></weakClassifiers></_>
    <!-- stage 2 -->
    <_>
      <maxWeakCount>2</maxWeakCount>
      <stageThreshold>-1.4846092462539673e-01</stageThreshold>
      <weakClassifiers>
        <_>
          <internalNodes>
            0 -1 32 1.0385384783148766e-02</internalNodes>
          <leafValues>
            -8.7755101919174194e-01 6.9230771064758301e-01</leafValues></_>
        <_>
          <internalNodes>
            0 -1 20 7.6298452913761139e-02</internalNodes>
          <leafValues>
            -7.4505358934402466e-01 7.2909009456634521e-01</leafValues></_></weakClassifiers></_>
    <!-- stage 3 -->
    <_>
      <maxWeakCount>4</maxWeakCount>
      <stageThreshold>-1.5706011056900024e+00</stageThreshold>
      <weakClassifiers>
        <_>
          <internalNodes>
            0 -1 6 -1.9191861152648926e-02</internalNodes>
          <leafValues>
            7.8571426868438721e-01 -7.6851850748062134e-01</leafValues></_>
        <_>
          <internalNodes>
            0 -1 30 3.7330947816371918e-02</internalNodes>
          <leafValues>
            -8.0227297544479370e-01 6.5766060352325439e-01</leafValues></_>
        <_>
          <internalNodes>
            0 -1 1 -6.9706179201602936e-02</internalNodes>
          <leafValues>
            6.9191092252731323e-01 -7.2091180086135864e-01</leafValues></_>
        <_>
          <internalNodes>
            0 -1 33 1.1401550844311714e-02</internalNodes>
          <leafValues>
            -5.7610529661178589e-01 7.2110211849212646e-01</leafValues></_></weakClassifiers></_>
    <!-- stage 4 -->
    <_>
      <maxWeakCount>2</maxWeakCount>
      <stageThreshold>-2.1016718447208405e-01</stageThreshold>
      <weakClassifiers>
        <_>
          <internalNodes>
            0 -1 15 -1.3761436566710472e-02</internalNodes>
          <leafValues>
            7.7142858505249023e-01 -6.6956520080566406e-01</leafValues></_>
        <_>
          <internalNodes>
            0 -1 4 -3.4058976918458939e-02</internalNodes>
          <leafValues>
            4.5939803123474121e-01 -9.6505248546600342e-01</leafValues></_></weakClassifiers></_>
    <!-- stage 5 -->
    <_>
      <maxWeakCount>4</maxWeakCount>
      <stageThreshold>-1.2408349514007568e+00</stageThreshold>
      <weakClassifiers>
        <_>
          <internalNodes>
            0 -1 17 -1.1442720890045166e-01</internalNodes>
          <leafValues>
            2.9655173420906067e-01 -9.2258065938949585e-01</leafValues></_>
        <_>
          <internalNodes>
            0 -1 26 1.0669602081179619e-02</internalNodes>
          <leafValues>
            -5.7566702365875244e-01 6.2274843454360962e-01</leafValues></_>
        <_>
          <internalNodes>
            0 -1 16 -1.7595339566469193e-02</internalNodes>
          <leafValues>
            -4.7812989354133606e-01 8.0694007873535156e-01</leafValues></_>
        <_>
          <internalNodes>
            0 -1 7 -1.1437321081757545e-02</internalNodes>
          <leafValues>
            7.3554265499114990e-01 -6.6495293378829956e-01</leafValues></_></weakClassifiers></_>
    <!-- stage 6 -->
    <_>
      <maxWeakCount>5</maxWeakCount>
      <stageThreshold>-1.7252489328384399e+00</stageThreshold>
      <weakClassifiers>
        <_>
          <internalNodes>
            0 -1 19 -9.4816900789737701e-02</internalNodes>
          <leafValues>
            4.1605839133262634e-01 -9.6319019794464111e-01</leafValues></_>
        <_>
          <internalNodes>
            0 -1 31 3.2695818692445755e-02</internalNodes>
          <leafValues>
            -5.6656366586685181e-01 7.7744400501251221e-01</leafValues></_>
        <_>
          <internalNodes>
            0 -1 10 2.8461115434765816e-02</internalNodes>
          <leafValues>
            -8.8496428728103638e-01 3.7206414341926575e-01</leafValues></_>
        <_>
          <internalNodes>
            0 -1 11 -4.3969802558422089e-02</internalNodes>
          <leafValues>
            3.9695522189140320e-01 -8.5475087165832520e-01</leafValues></_>
        <_>
          <internalNodes>
            0 -1 28 -1.5966455976013094e-04</internalNodes>
          <leafValues>
            -9.1433000564575195e-01 2.8719165921211243e-01</leafValues></_></weakClassifiers></_>
    <!-- stage 7 -->
    <_>
      <maxWeakCount>4</maxWeakCount>
      <stageThreshold>-6.7046415805816650e-01</stageThreshold>
      <weakClassifiers>
        <_>
          <internalNodes>
            0 -1 3 -4.7345943748950958e-02</internalNodes>
          <leafValues>
            4.2592594027519226e-01 -7.6041668653488159e-01</leafValues></_>
        <_>
          <internalNodes>
            0 -1 21 4.3013006448745728e-02</internalNodes>
          <leafValues>
            -8.7196439504623413e-01 3.0625057220458984e-01</leafValues></_>
        <_>
          <internalNodes>
            0 -1 24 -2.6262012124061584e-01</internalNodes>
          <leafValues>
            6.1913681030273438e-01 -4.9357637763023376e-01</leafValues></_>
        <_>
          <internalNodes>
            0 -1 2 1.1457103391876444e-04</internalNodes>
          <leafValues>
            4.4173532724380493e-01 -8.3543491363525391e-01</leafValues></_></weakClassifiers></_>
    <!-- stage 8 -->
    <_>
      <maxWeakCount>6</maxWeakCount>
      <stageThreshold>-8.5537874698638916e-01</stageThreshold>
      <weakClassifiers>
        <_>
          <internalNodes>
            0 -1 8 -2.3386520147323608e-01</internalNodes>
          <leafValues>
            6.4516127109527588e-01 -5.8823531866073608e-01</leafValues></_>
        <_>
          <internalNodes>
            0 -1 23 -7.6733224093914032e-02</internalNodes>
          <leafValues>
            4.5952001214027405e-01 -6.8302130699157715e-01</leafValues></_>
        <_>
          <internalNodes>
            0 -1 14 1.0053903795778751e-02</internalNodes>
          <leafValues>
            -7.6964259147644043e-01 2.7562856674194336e-01</leafValues></_>
        <_>
          <internalNodes>
            0 -1 34 2.3918204009532928e-02</internalNodes>
          <leafValues>
            -3.5121792554855347e-01 7.1286457777023315e-01</leafValues></_>
        <_>
          <internalNodes>
            0 -1 22 6.0765485977753997e-04</internalNodes>
          <leafValues>
            2.9579249024391174e-01 -7.8479397296905518e-01</leafValues></_>
        <_>
          <internalNodes>
            0 -1 9 -5.2222185331629589e-05</internalNodes>
          <leafValues>
            -9.1250234842300415e-01 1.9567467272281647e-01</leafValues></_></weakClassifiers></_>
    <!-- stage 9 -->
    <_>
      <maxWeakCount>4</maxWeakCount>
      <stageThreshold>-6.1098921298980713e-01</stageThreshold>
      <weakClassifiers>
        <_>
          <internalNodes>
            0 -1 25 -3.2051074504852295e-01</internalNodes>
          <leafValues>
            4.9367088079452515e-01 -6.2895929813385010e-01</leafValues></_>
        <_>
          <internalNodes>
            0 -1 29 -2.6521736799622886e-05</internalNodes>
          <leafValues>
            -9.6186697483062744e-01 2.5766593217849731e-01</leafValues></_>
        <_>
          <internalNodes>
            0 -1 27 -1.2166152708232403e-02</internalNodes>
          <leafValues>
            5.1118069887161255e-01 -5.1265490055084229e-01</leafValues></_>
        <_>
          <internalNodes>
            0 -1 5 -5.8400806039571762e-02</internalNodes>
          <leafValues>
            -8.4040522575378418e-01 3.6986178159713745e-01</leafValues></_></weakClassifiers></_></stages>
  <features>
    <_>
      <rects>
        <_>
          0 0 2 18 -1.</_>
        <_>
          1 0 1 18 2.</_></rects>
      <tilted>0</tilted></_>
    <_>
      <rects>
        <_>
          0 0 6 20 -1.</_>
        <_>
          3 0 3 20 2.</_></rects>
      <tilted>0</tilted></_>
    <_>
      <rects>
        <_>
          0 0 8 1 -1.</_>
        <_>
          4 0 4 1 2.</_></rects>
      <tilted>0</tilted></_>
    <_>
      <rects>
        <_>
          0 0 4 8 -1.</_>
        <_>
          0 4 4 4 2.</_></rects>
      <tilted>0</tilted></_>
    <_>
      <rects>
        <_>
          0 1 4 19 -1.</_>
        <_>
          2 1 2 19 2.</_></rects>
      <tilted>0</tilted></_>
    <_>
      <rects>
        <_>
          0 2 20 18 -1.</_>
        <_>
          0 11 20 9 2.</_></rects>
      <tilted>0</tilted></_>
    <_>
      <rects>
        <_>
          0 4 2 14 -1.</_>
        <_>
          1 4 1 14 2.</_></rects>
      <tilted>0</tilted></_>
    <_>
      <rects>
        <_>
          0 13 2 6 -1.</_>
        <_>
          1 13 1 6 2.</_></rects>
      <tilted>0</tilted></_>
    <_>
      <rects>
        <_>
          0 13 18 6 -1.</_>
        <_>
          9 13 9 6 2.</_></rects>
      <tilted>0</tilted></_>
    <_>
      <rects>
        <_>
          0 16 1 4 -1.</_>
        <_>
          0 18 1 2 2.</_></rects>
      <tilted>0</tilted></_>
    <_>
      <rects>
        <_>
          0 16 20 4 -1.</_>
        <_>
          0 18 20 2 2.</_></rects>
      <tilted>0</tilted></_>
    <_>
      <rects>
        <_>
          1 0 18 4 -1.</_>
        <_>
          1 2 18 2 2.</_></rects>
      <tilted>0</tilted></_>
    <_>
      <rects>
        <_>
          1 18 18 2 -1.</_>
        <_>
          1 19 18 1 2.</_></rects>
      <tilted>0</tilted></_>
    <_>
      <rects>
        <_>
          2 0 15 2 -1.</_>
        <_>
          2 1 15 1 2.</_></rects>
      <tilted>0</tilted></_>
    <_>
      <rects>
        <_>
          3 18 17 2 -1.</_>
        <_>
          3 19 17 1 2.</_></rects>
      <tilted>0</tilted></_>
    <_>
      <rects>
        <_>
          4 0 4 2 -1.</_>
        <_>
          4 1 4 1 2.</_></rects>
      <tilted>0</tilted></_>
    <_>
      <rects>
        <_>
          4 2 1 3 -1.</_>
        <_>
          4 3 1 1 2.</_></rects>
      <tilted>0</tilted></_>
    <_>
      <rects>
        <_>
          6 0 9 10 -1.</_>
        <_>
          6 5 9 5 2.</_></rects>
      <tilted>0</tilted></_>
    <_>
      <rects>
        <_>
          6 0 10 10 -1.</_>
        <_>
          6 5 10 5 2.</_></rects>
      <tilted>0</tilted></_>
    <_>
      <rects>
        <_>
          7 0 8 10 -1.</_>
        <_>
          7 5 8 5 2.</_></rects>
      <tilted>0</tilted></_>
    <_>
      <rects>
        <_>
          7 12 8 8 -1.</_>
        <_>
          7 16 8 4 2.</_></rects>
      <tilted>0</tilted></_>
    <_>
      <rects>
        <_>
          8 1 12 17 -1.</_>
        <_>
          14 1 6 17 2.</_></rects>
      <tilted>0</tilted></_>
    <_>
      <rects>
        <_>
          9 0 6 1 -1.</_>
        <_>
          12 0 3 1 2.</_></rects>
      <tilted>0</tilted></_>
    <_>
      <rects>
        <_>
          9 0 10 6 -1.</_>
        <_>
          9 3 10 3 2.</_></rects>
      <tilted>0</tilted></_>
    <_>
      <rects>
        <_>
          10 0 9 18 -1.</_>
        <_>
          10 9 9 9 2.</_></rects>
      <tilted>0</tilted></_>
    <_>
      <rects>
        <_>
          11 0 9 18 -1.</_>
        <_>
          11 9 9 9 2.</_></rects>
      <tilted>0</tilted></_>
    <_>
      <rects>
        <_>
          12 18 5 2 -1.</_>
        <_>
          12 19 5 1 2.</_></rects>
      <tilted>0</tilted></_>
    <_>
      <rects>
        <_>
          13 0 6 2 -1.</_>
        <_>
          13 1 6 1 2.</_></rects>
      <tilted>0</tilted></_>
    <_>
      <rects>
        <_>
          14 18 6 2 -1.</_>
        <_>
          17 18 3 2 2.</_></rects>
      <tilted>0</tilted></_>
    <_>
      <rects>
        <_>
          16 0 4 2 -1.</_>
        <_>
          18 0 2 2 2.</_></rects>
      <tilted>0</tilted></_>
    <_>
      <rects>
        <_>
          16 2 4 18 -1.</_>
        <_>
          18 2 2 18 2.</_></rects>
      <tilted>0</tilted></_>
    <_>
      <rects>
        <_>
          18 2 2 14 -1.</_>
        <_>
          19 2 1 14 2.</_></rects>
      <tilted>0</tilted></_>
    <_>
      <rects>
        <_>
          18 6 2 13 -1.</_>
        <_>
          19 6 1 13 2.</_></rects>
      <tilted>0</tilted></_>
    <_>
      <rects>
        <_>
          18 12 2 8 -1.</_>
        <_>
          19 12 1 8 2.</_></rects>
      <tilted>0</tilted></_>
    <_>
      <rects>
        <_>
          18 13 2 7 -1.</_>
        <_>
          19 13 1 7 2.</_></rects>
      <tilted>0</tilted></_></features></cascade>
</opencv_storage>
